# 10 most changing weights are of index: 31,67	57,6	57,112	156,124	185,103	154,39	185,48	185,146	195,126	195,194	
0	0.0770305	-0.111782	0.0572154	-0.0157967	-0.190795	0.0862216	-0.0462001	0.101727	0.0435468	0.108482	
20	0.0761257	-0.112259	0.0581299	-0.0159916	-0.191628	0.0857963	-0.0470385	0.100364	0.0417888	0.106881	
40	0.0760038	-0.112124	0.0581385	-0.0149031	-0.19154	0.0853844	-0.0468259	0.101304	0.0418951	0.106748	
60	0.0767405	-0.110068	0.0560406	-0.0136833	-0.191206	0.085789	-0.0475634	0.100615	0.0411774	0.106913	
80	0.0762768	-0.111416	0.0576816	-0.014567	-0.190894	0.0852349	-0.047803	0.100342	0.0406259	0.106621	
100	0.0764758	-0.112405	0.0581993	-0.0157197	-0.191109	0.0855364	-0.0480833	0.0994776	0.0404389	0.10679	
120	0.0767797	-0.11317	0.0582712	-0.0158847	-0.191583	0.0854316	-0.0473684	0.0997032	0.0397478	0.106043	
140	0.0767881	-0.113071	0.0584317	-0.0160264	-0.191653	0.0852256	-0.0468403	0.0998821	0.0390062	0.105261	
160	0.0766633	-0.11341	0.0595368	-0.0160422	-0.191373	0.0845346	-0.0465781	0.100275	0.0382387	0.104419	
180	0.0770782	-0.113646	0.0595136	-0.0159133	-0.191342	0.0847459	-0.0467211	0.100109	0.0381915	0.104233	
200	0.0773833	-0.114271	0.0602607	-0.0146105	-0.191595	0.0837439	-0.0467039	0.100043	0.0371399	0.103169	
220	0.0772799	-0.114771	0.0602338	-0.0145528	-0.191525	0.0832947	-0.0468457	0.0992588	0.0371233	0.102833	
240	0.0772522	-0.114635	0.0595185	-0.014442	-0.191549	0.0827859	-0.0470329	0.0990845	0.0368802	0.102624	
260	0.0768093	-0.114702	0.0604014	-0.0132646	-0.191273	0.0824482	-0.0470765	0.0985209	0.0365861	0.102542	
280	0.0770623	-0.114625	0.060358	-0.0143048	-0.190917	0.0834658	-0.0471084	0.0985227	0.0364993	0.102418	
300	0.0770946	-0.115022	0.0611983	-0.0141846	-0.191064	0.0830281	-0.0467701	0.0990294	0.0363989	0.102727	
320	0.0771706	-0.115955	0.0623576	-0.0126309	-0.189714	0.0831256	-0.0481809	0.0972617	0.0363023	0.102521	
340	0.0761861	-0.11648	0.062179	-0.0123709	-0.189881	0.0828388	-0.0483039	0.0971713	0.0360032	0.102623	
360	0.0758542	-0.116943	0.0624136	-0.0121434	-0.190492	0.0823101	-0.048672	0.0974615	0.0350581	0.102428	
380	0.0754542	-0.116996	0.0624403	-0.0113143	-0.190464	0.0829623	-0.0474964	0.098289	0.0350895	0.10302	
400	0.0739757	-0.118758	0.0635643	-0.0100999	-0.190091	0.0818037	-0.04757	0.0980099	0.0349787	0.102699	
420	0.0735271	-0.118852	0.0636642	-0.00926498	-0.189847	0.0816822	-0.0471628	0.0993615	0.0356829	0.103572	
440	0.0732172	-0.120573	0.0647988	-0.00760353	-0.189728	0.0820079	-0.0478265	0.0993256	0.0360324	0.104754	
460	0.0730867	-0.120672	0.0649559	-0.00868201	-0.188836	0.0828895	-0.0480535	0.0987742	0.0362875	0.104192	
480	0.0707901	-0.123366	0.0655459	-0.00832928	-0.189577	0.0791056	-0.0481474	0.0981755	0.0358248	0.103573	
500	0.0680543	-0.124653	0.0661475	-0.00773025	-0.190354	0.07972	-0.0473737	0.0984902	0.0348878	0.101457	
520	0.0694091	-0.125361	0.0669806	-0.0068585	-0.189264	0.0778778	-0.0484239	0.0973444	0.0346508	0.102061	
540	0.0689515	-0.12619	0.0680824	-0.0067281	-0.189275	0.0770615	-0.0484795	0.0970114	0.0346883	0.102091	
560	0.0688763	-0.12717	0.0685852	-0.00449073	-0.1884	0.0762097	-0.050189	0.096226	0.0334148	0.10068	
580	0.0689822	-0.128703	0.0705872	-0.00369029	-0.187426	0.0753767	-0.0507546	0.0953102	0.0323392	0.0994271	
600	0.0686156	-0.129209	0.0715086	-0.00309698	-0.185177	0.0729465	-0.0555261	0.0912018	0.0325004	0.0996007	
620	0.0677821	-0.128781	0.0714966	-0.00161133	-0.184334	0.0729577	-0.0561993	0.0913482	0.0313156	0.0976015	
640	0.0675509	-0.126556	0.0685	-0.00135068	-0.181915	0.070702	-0.0571585	0.0922275	0.0312733	0.0966572	
660	0.0670138	-0.127644	0.0697674	-0.00154588	-0.183125	0.0710182	-0.0565619	0.0935331	0.0314607	0.0967219	
680	0.0664318	-0.126833	0.0690602	-0.00153711	-0.181334	0.0695564	-0.0567329	0.0922423	0.0313589	0.0967366	
700	0.0657028	-0.125502	0.068312	-0.000204809	-0.180594	0.0689783	-0.0573368	0.0918001	0.0309434	0.0962761	
720	0.0657834	-0.12549	0.0682002	-0.000320336	-0.179319	0.0686939	-0.0580648	0.0908983	0.0299261	0.0952702	
740	0.0641532	-0.126067	0.0687677	-0.000500566	-0.178156	0.0698045	-0.0590026	0.0902551	0.0298136	0.0950135	
760	0.0638218	-0.125597	0.0687297	-0.000566434	-0.177677	0.070117	-0.0592054	0.0902098	0.0296704	0.0949374	
780	0.0639147	-0.12545	0.0690124	0.000470235	-0.177489	0.0711784	-0.0597248	0.0898022	0.0294605	0.0944576	
800	0.0634085	-0.125393	0.0686229	0.00079314	-0.176767	0.0715526	-0.059561	0.0908069	0.0304929	0.095014	
820	0.0627572	-0.124841	0.0684596	0.00119219	-0.176194	0.0714114	-0.0597698	0.0907368	0.0306512	0.0949854	
840	0.0624687	-0.126087	0.0701603	0.000599602	-0.176083	0.0718888	-0.0598942	0.0909302	0.0297619	0.0940728	
860	0.0610074	-0.127545	0.071256	0.00106643	-0.176612	0.0723186	-0.0593447	0.0915705	0.028634	0.0927522	
880	0.058837	-0.127759	0.0714153	0.00141686	-0.176231	0.0724967	-0.0597285	0.0914669	0.0285757	0.0926069	
900	0.0590483	-0.128591	0.071063	0.00139863	-0.175648	0.0717578	-0.0603231	0.0910491	0.0281093	0.0923882	
920	0.0591102	-0.128577	0.0710006	0.00121339	-0.175364	0.0717878	-0.0605868	0.0909754	0.0279525	0.0923249	
940	0.0598522	-0.128797	0.071532	0.00162629	-0.175286	0.0710965	-0.0608452	0.0903465	0.0274142	0.091783	
960	0.0592609	-0.12835	0.0705036	0.00165857	-0.173785	0.0702833	-0.0625428	0.0893836	0.0271554	0.0918013	
980	0.0594161	-0.129132	0.0720765	0.00230337	-0.173193	0.0702987	-0.0628029	0.088942	0.0280652	0.0928597	
1000	0.0594911	-0.129131	0.0719466	0.00334551	-0.17453	0.0697333	-0.0615087	0.0900648	0.0279823	0.0929201	
1020	0.0587818	-0.129972	0.0722064	0.00350656	-0.17374	0.0689017	-0.0621706	0.0895753	0.0282767	0.0931728	
1040	0.0599403	-0.128859	0.0723638	0.00358336	-0.172569	0.0707085	-0.062772	0.0887811	0.0285823	0.0941777	
1060	0.0595254	-0.1288	0.0732312	0.00422124	-0.171759	0.0703963	-0.0631934	0.0876783	0.0287175	0.0937085	
1080	0.0597539	-0.128733	0.0733162	0.00440479	-0.171198	0.0691844	-0.0638041	0.086987	0.0287667	0.0938324	
1100	0.0598107	-0.13002	0.0748264	0.00491697	-0.171069	0.06919	-0.0638851	0.0869152	0.0284598	0.093422	
1120	0.058856	-0.131415	0.0760848	0.00508329	-0.17046	0.0689377	-0.0642107	0.0863204	0.0274646	0.0920821	
1140	0.0586558	-0.131355	0.0760479	0.00494926	-0.170485	0.0688348	-0.0640043	0.0864797	0.0274664	0.0922646	
1160	0.0579282	-0.130896	0.0755288	0.00446643	-0.169922	0.0681286	-0.0645816	0.0858106	0.0277303	0.0927909	
1180	0.0567693	-0.13094	0.0757802	0.00463727	-0.171215	0.0684958	-0.0640178	0.0862053	0.0278613	0.0927023	
1200	0.05654	-0.131324	0.0757947	0.00451003	-0.171411	0.0695044	-0.063867	0.0861566	0.0278416	0.0927504	
1220	0.0565088	-0.131334	0.0759761	0.00501421	-0.171377	0.0689552	-0.0638758	0.0860896	0.0280219	0.0931054	
1240	0.0565621	-0.13204	0.0764884	0.00532226	-0.171399	0.0684939	-0.0639015	0.0860653	0.0278217	0.0929708	
1260	0.0567937	-0.132099	0.0764791	0.00504142	-0.170909	0.0684354	-0.0644049	0.0858644	0.0278062	0.093028	
1280	0.0567764	-0.131544	0.0756204	0.00514425	-0.171072	0.0683458	-0.0643229	0.0860028	0.0272171	0.0924806	
1300	0.0557588	-0.131831	0.0757185	0.00533879	-0.171036	0.0681319	-0.0642536	0.0859425	0.0269383	0.092256	
1320	0.0558542	-0.131116	0.0753558	0.00522686	-0.170026	0.0679754	-0.0651202	0.0846807	0.0266791	0.0919165	
1340	0.0561566	-0.130808	0.0752981	0.0053002	-0.17052	0.0678947	-0.0658142	0.0840523	0.0258983	0.0909696	
1360	0.0568375	-0.130827	0.075528	0.00521522	-0.170683	0.0677771	-0.0655869	0.0843267	0.0261593	0.0911709	
1380	0.0562036	-0.131089	0.0762099	0.00499043	-0.17037	0.0677713	-0.0658349	0.0839247	0.0261121	0.0911159	
1400	0.0560787	-0.131402	0.0762994	0.00490996	-0.170213	0.0678372	-0.0657782	0.0837187	0.0257761	0.0906523	
1420	0.0561079	-0.131323	0.0761594	0.00475593	-0.170138	0.0680041	-0.0658662	0.0836814	0.0260209	0.0909574	
1440	0.0560499	-0.131283	0.0761279	0.00486053	-0.170221	0.0679217	-0.0658289	0.0837454	0.0261446	0.0911096	
1460	0.0560377	-0.131344	0.0763684	0.00487236	-0.170393	0.0677857	-0.0656639	0.0838411	0.0260659	0.0910056	
1480	0.0558624	-0.131575	0.0763572	0.00495232	-0.170458	0.0675722	-0.0656409	0.0838423	0.0260851	0.0910201	
1500	0.0558491	-0.131647	0.0764247	0.00490205	-0.17049	0.0673534	-0.0656639	0.0838814	0.0259422	0.0909747	
1520	0.0556595	-0.132023	0.0765555	0.00471504	-0.170035	0.0673799	-0.0660192	0.083403	0.0262118	0.0912306	
1540	0.0556197	-0.131955	0.0764956	0.00473093	-0.170066	0.0673139	-0.0660164	0.0834217	0.0262474	0.0912377	
1560	0.0557655	-0.131837	0.0764961	0.00467089	-0.170115	0.0669467	-0.0659612	0.0835563	0.0263552	0.0913298	
1580	0.0556134	-0.131677	0.0764103	0.00435875	-0.170032	0.0672123	-0.066064	0.0833517	0.025951	0.0907653	
1600	0.0556355	-0.131739	0.0765361	0.00429654	-0.169868	0.0671228	-0.0663012	0.0831828	0.0257903	0.0905765	
1620	0.0556965	-0.131786	0.0765507	0.00426334	-0.169869	0.0670963	-0.0663333	0.0830911	0.0256256	0.0903646	
1640	0.0557	-0.13196	0.0766267	0.00426463	-0.169939	0.0666793	-0.0662401	0.0831277	0.025512	0.090164	
1660	0.0557163	-0.131878	0.0765754	0.00407324	-0.169789	0.0666664	-0.066426	0.0830816	0.0254426	0.0901375	
1680	0.0555611	-0.131963	0.0766678	0.00421156	-0.170061	0.0665169	-0.0661132	0.0832182	0.0254541	0.0901209	
1700	0.0556206	-0.131863	0.0764867	0.00417174	-0.170043	0.0664451	-0.0661034	0.0832995	0.025446	0.090126	
1720	0.0556384	-0.13171	0.0766041	0.00411194	-0.169933	0.0665835	-0.0661989	0.0831217	0.0254703	0.0901645	
1740	0.0556758	-0.131888	0.0768028	0.00416254	-0.169878	0.0666046	-0.066249	0.0830834	0.0255544	0.0903286	
1760	0.0556094	-0.131808	0.0767505	0.00415303	-0.169811	0.066718	-0.0661567	0.0830149	0.0258154	0.0906648	
1780	0.0556221	-0.131664	0.0766285	0.00411716	-0.169801	0.066789	-0.0661423	0.0829761	0.0257637	0.0905608	
1800	0.0555153	-0.13172	0.0767377	0.00407362	-0.169822	0.0667761	-0.0660376	0.082979	0.0259114	0.0907296	
1820	0.0555214	-0.131746	0.0767491	0.00391677	-0.169982	0.0665858	-0.0658143	0.0831095	0.0260011	0.0908468	
1840	0.0555512	-0.131702	0.0767098	0.0038512	-0.170006	0.0663752	-0.0657542	0.0831378	0.0259868	0.0908857	
1860	0.0556109	-0.13175	0.0766681	0.00376447	-0.169985	0.0663778	-0.0658154	0.0829988	0.0260113	0.0909603	
1880	0.0556983	-0.131785	0.0767668	0.00378565	-0.170147	0.0666127	-0.0657135	0.0831242	0.0258172	0.0907653	
1900	0.0557163	-0.131725	0.0767252	0.00381147	-0.170175	0.0667257	-0.0657133	0.0831628	0.0256714	0.0906615	
1920	0.0554673	-0.131777	0.0768142	0.00389298	-0.170334	0.066878	-0.0656839	0.0833317	0.0257938	0.0907611	
1940	0.0554568	-0.131843	0.0767548	0.00403425	-0.17032	0.0668389	-0.0656858	0.0833909	0.0257267	0.0906957	
1960	0.0554759	-0.131768	0.0766958	0.00401763	-0.170219	0.0670594	-0.0656824	0.0833357	0.0258882	0.0908577	
1980	0.0554882	-0.13179	0.0767635	0.00403902	-0.17026	0.067088	-0.0655952	0.0834151	0.0258661	0.0908224	
2000	0.0553698	-0.131507	0.0764472	0.00435629	-0.170296	0.067135	-0.0655385	0.0834451	0.0255526	0.0905336	
2020	0.0553096	-0.131505	0.0764863	0.00443566	-0.170266	0.0670728	-0.06556	0.083436	0.0255662	0.0905376	
2040	0.0552194	-0.13145	0.0764979	0.00450626	-0.170368	0.066936	-0.0654867	0.0834616	0.0256153	0.0906342	
2060	0.0550254	-0.131491	0.0763947	0.00452211	-0.170243	0.0670072	-0.0655957	0.083278	0.0256633	0.0906813	
2080	0.0550446	-0.131501	0.0763853	0.00442255	-0.17026	0.06703	-0.0656164	0.0833756	0.0256493	0.0906667	
2100	0.0549998	-0.131529	0.0764554	0.00462984	-0.170304	0.0670375	-0.0656496	0.0834472	0.0254237	0.09045	
2120	0.0551342	-0.131462	0.0764112	0.00438109	-0.170409	0.0672239	-0.0656581	0.0834888	0.0253973	0.0904566	
2140	0.0550307	-0.131441	0.0764163	0.00444703	-0.170349	0.0672386	-0.065721	0.0834058	0.0254452	0.0905131	
2160	0.0549406	-0.131619	0.0765826	0.00445752	-0.170273	0.0672718	-0.0658196	0.0832173	0.0253397	0.0903621	
2180	0.0549566	-0.131638	0.0766021	0.0045306	-0.170308	0.0671197	-0.0658117	0.0831454	0.025397	0.0904299	
2200	0.0549544	-0.131679	0.0766606	0.00452733	-0.170317	0.0671185	-0.0658009	0.0831819	0.0253134	0.0903437	
2220	0.0549383	-0.131743	0.076701	0.00439925	-0.170284	0.0671217	-0.0658188	0.0831806	0.0252559	0.0902983	
2240	0.0549139	-0.13177	0.0767133	0.00428911	-0.170323	0.0671237	-0.0658068	0.0832203	0.0252314	0.0902418	
2260	0.0548988	-0.131809	0.0767515	0.00429417	-0.170297	0.067097	-0.0658282	0.083189	0.025346	0.0903336	
2280	0.054912	-0.131759	0.0767313	0.00431382	-0.170263	0.0673988	-0.0657755	0.0831076	0.0254967	0.0905106	
2300	0.0549819	-0.131846	0.0767867	0.00437882	-0.170343	0.0674255	-0.0657649	0.0831236	0.0255305	0.0905585	
2320	0.0548896	-0.131932	0.0768146	0.0043617	-0.170317	0.0673859	-0.0657601	0.0830789	0.0255306	0.0905581	
2340	0.0548478	-0.131938	0.0768311	0.00430562	-0.170323	0.0673681	-0.0657687	0.0830983	0.0254877	0.0905092	
2360	0.0548531	-0.131979	0.0768892	0.00435839	-0.170303	0.0673429	-0.0657944	0.0830784	0.0255205	0.0905376	
2380	0.0549006	-0.132009	0.0769134	0.00433631	-0.170336	0.0674215	-0.0657492	0.083079	0.0255063	0.0904891	
2400	0.0548681	-0.132065	0.076984	0.00433359	-0.170285	0.0674897	-0.0657871	0.0830748	0.0254058	0.0903921	
2420	0.0548998	-0.132004	0.0769294	0.00440207	-0.170223	0.0673269	-0.065847	0.08297	0.025317	0.0903516	
2440	0.0549512	-0.131882	0.0767839	0.00449027	-0.170274	0.0676727	-0.0660687	0.0830215	0.0256722	0.0906091	
2460	0.0548811	-0.131824	0.0767397	0.00421653	-0.170224	0.0676985	-0.0659718	0.0830075	0.0256844	0.0906269	
2480	0.0548776	-0.131823	0.0767365	0.00424019	-0.170321	0.0676412	-0.0659169	0.0830695	0.0256573	0.0906279	
2500	0.0549062	-0.131776	0.0767888	0.00425722	-0.17027	0.067629	-0.0658797	0.0830781	0.0256254	0.0905922	
2520	0.0547972	-0.131787	0.0767704	0.00427479	-0.170277	0.0675848	-0.0658571	0.0831176	0.0256603	0.0906676	
2540	0.0545811	-0.131706	0.0766988	0.00429986	-0.170187	0.0675609	-0.0659598	0.0830418	0.0256604	0.0907119	
2560	0.0545647	-0.1317	0.0766382	0.00422231	-0.170228	0.0675452	-0.0658485	0.0830441	0.0256808	0.0907313	
2580	0.0545825	-0.131967	0.0767466	0.00413895	-0.170227	0.0675777	-0.0658571	0.083022	0.0256126	0.0906702	
2600	0.0543359	-0.131926	0.076699	0.00420228	-0.170263	0.0675197	-0.0658124	0.0831122	0.0255715	0.0906095	
2620	0.0542109	-0.131914	0.0767249	0.00421117	-0.170305	0.0675639	-0.0657904	0.0831941	0.0255721	0.0906258	
2640	0.0542149	-0.131771	0.0767485	0.00418964	-0.170363	0.0673655	-0.0657594	0.0832144	0.0256556	0.090693	
2660	0.0542309	-0.131476	0.0765912	0.00416158	-0.170369	0.0674371	-0.0657503	0.0832049	0.0256749	0.0907065	
2680	0.0542588	-0.131562	0.0766203	0.00422821	-0.170352	0.0674174	-0.0657879	0.0831865	0.0256536	0.0907067	
2700	0.0543152	-0.131586	0.076519	0.00435828	-0.170416	0.0673862	-0.065798	0.0831829	0.0256587	0.0907173	
2720	0.0542905	-0.13147	0.0764262	0.00443468	-0.170395	0.0673317	-0.0657376	0.0832179	0.0256293	0.0906838	
2740	0.0541861	-0.131564	0.07652	0.00432195	-0.170411	0.0672891	-0.0656755	0.0832312	0.0255948	0.090643	
2760	0.0542409	-0.131653	0.076583	0.00424532	-0.170444	0.0671722	-0.0656951	0.0832708	0.025542	0.0905876	
2780	0.054246	-0.13165	0.0765856	0.00420358	-0.170448	0.0671932	-0.0657041	0.0832604	0.0255387	0.0905768	
2800	0.0541609	-0.131597	0.0765197	0.00419102	-0.170514	0.0671397	-0.0656613	0.0832136	0.0255253	0.0905508	
2820	0.0541938	-0.131577	0.0765033	0.00406301	-0.170531	0.0671168	-0.0656247	0.0831906	0.0255406	0.0905603	
2840	0.0542334	-0.131501	0.0764865	0.00393514	-0.170571	0.067051	-0.0655688	0.083223	0.0256163	0.090636	
2860	0.0541664	-0.131659	0.0765972	0.0041136	-0.170572	0.0669965	-0.0655611	0.0832147	0.0257085	0.0907073	
2880	0.0541429	-0.131633	0.076572	0.00408823	-0.170568	0.0670187	-0.0655565	0.0832244	0.0257652	0.0907374	
2900	0.0541492	-0.131673	0.0765794	0.00411929	-0.170825	0.0670822	-0.0652342	0.0833074	0.0257801	0.0907494	
2920	0.0541862	-0.131909	0.076667	0.00406576	-0.170796	0.067022	-0.0652501	0.0832807	0.025751	0.0907152	
2940	0.0541641	-0.131929	0.0766489	0.0040257	-0.170788	0.0670415	-0.0652616	0.0832721	0.0257503	0.0907279	
2960	0.0542163	-0.131936	0.076664	0.00403552	-0.17075	0.0670352	-0.0653228	0.0832376	0.0257206	0.0906859	
2980	0.0542363	-0.132042	0.0767729	0.00401921	-0.170735	0.0669982	-0.0653251	0.0832143	0.0257787	0.0907336	
3000	0.0542845	-0.131985	0.0767901	0.00403092	-0.170775	0.0670063	-0.0653619	0.0832177	0.0257674	0.0907144	
3020	0.0541758	-0.132069	0.0768758	0.00399753	-0.1707	0.0670478	-0.0654973	0.0831805	0.0257218	0.0906789	
3040	0.0542104	-0.132031	0.0769088	0.00403987	-0.170701	0.0669527	-0.065502	0.0832022	0.0257576	0.0907417	
3060	0.0542505	-0.13231	0.0769934	0.0040424	-0.17065	0.0670141	-0.0655046	0.0831507	0.0256807	0.0906622	
3080	0.0542459	-0.132381	0.0770728	0.00405477	-0.170671	0.0670118	-0.0654986	0.0831554	0.0257031	0.0906507	
3100	0.0541242	-0.132264	0.0770358	0.00406757	-0.170686	0.0668239	-0.0654799	0.0831727	0.0256933	0.0906488	
3120	0.0541122	-0.132258	0.0770378	0.00407061	-0.170721	0.0667817	-0.0654346	0.0832145	0.0257208	0.0906723	
3140	0.0541225	-0.132406	0.0771383	0.0040894	-0.17075	0.066843	-0.0654147	0.0832685	0.0257216	0.0906743	
3160	0.0541198	-0.13235	0.0771273	0.00410186	-0.170778	0.0668877	-0.0653817	0.0832693	0.0257073	0.090663	
3180	0.0540815	-0.132356	0.0771195	0.0041613	-0.170789	0.0668982	-0.0653495	0.0832938	0.025691	0.0906722	
3200	0.0540948	-0.132416	0.0771859	0.00405801	-0.17081	0.066911	-0.0653281	0.0832853	0.0256006	0.0906188	
3220	0.0541636	-0.132152	0.0770397	0.00422593	-0.17082	0.0668842	-0.0654217	0.0832153	0.025737	0.0907997	
3240	0.0542079	-0.132183	0.0770445	0.00420954	-0.17077	0.0669764	-0.0654795	0.0831574	0.0258155	0.0908832	
3260	0.0541619	-0.13218	0.077037	0.00417626	-0.170767	0.0669339	-0.0654828	0.0831512	0.0258418	0.0909173	
3280	0.0541473	-0.132185	0.076988	0.00420911	-0.170753	0.0669387	-0.0655039	0.0831284	0.0256944	0.0908097	
3300	0.0541474	-0.132193	0.0770009	0.00414025	-0.17075	0.0669421	-0.0655167	0.0831127	0.0257157	0.0908263	
3320	0.0540879	-0.132116	0.0769222	0.00438818	-0.170776	0.0669407	-0.0654966	0.0831878	0.0256734	0.0908114	
3340	0.0541172	-0.132051	0.0769305	0.00440072	-0.170776	0.0669665	-0.0655318	0.0832337	0.0255559	0.0906706	
3360	0.0540903	-0.132074	0.0769665	0.00447543	-0.170784	0.0668846	-0.0655394	0.0831579	0.0255327	0.0906422	
3380	0.054139	-0.132157	0.0770107	0.00451545	-0.170746	0.0668537	-0.0656431	0.0830422	0.025437	0.0905404	
3400	0.0541382	-0.132215	0.077039	0.00464469	-0.170746	0.0669531	-0.0656985	0.0828871	0.0254848	0.0905884	
3420	0.05407	-0.132198	0.0770508	0.00464081	-0.170798	0.0669052	-0.065617	0.0830094	0.0254876	0.090615	
3440	0.054081	-0.132145	0.0770617	0.00460917	-0.170766	0.0668826	-0.0656594	0.0829923	0.02545	0.0905835	
3460	0.0540902	-0.132103	0.0770284	0.00461825	-0.170681	0.0668866	-0.0657142	0.0829264	0.0253962	0.0905413	
3480	0.054116	-0.132125	0.077003	0.00464222	-0.170688	0.0668874	-0.0657291	0.0829196	0.0253733	0.0905271	
3500	0.054159	-0.132176	0.0770555	0.00463122	-0.170699	0.0668526	-0.0657286	0.0829131	0.0253397	0.0905095	
3520	0.0542793	-0.132212	0.0770981	0.00465096	-0.170705	0.0666954	-0.0656559	0.0830093	0.0253896	0.090585	
3540	0.0542414	-0.132329	0.0771791	0.00462737	-0.170706	0.0667562	-0.0656516	0.0829979	0.0252935	0.0904702	
3560	0.0541692	-0.132338	0.0772149	0.00455517	-0.170717	0.0667129	-0.0656356	0.0829296	0.0251411	0.090299	
3580	0.0542242	-0.132361	0.0772536	0.00452932	-0.17074	0.0667492	-0.0656266	0.0829798	0.024996	0.0901643	
3600	0.0541314	-0.132299	0.0773595	0.00454214	-0.170766	0.0667902	-0.0656862	0.0829351	0.0250292	0.0901991	
3620	0.0541981	-0.132165	0.0773469	0.00452435	-0.170732	0.0668891	-0.0657373	0.0829425	0.0250005	0.0901812	
3640	0.0542041	-0.13222	0.0773611	0.00449095	-0.170798	0.0668708	-0.0656627	0.083011	0.0250274	0.0902091	
3660	0.0542006	-0.132305	0.077401	0.00452564	-0.170798	0.0668465	-0.0656586	0.0830242	0.0249898	0.090188	
3680	0.0542042	-0.132272	0.0773664	0.00452146	-0.170817	0.066826	-0.0656359	0.0830117	0.0250576	0.0902413	
3700	0.0543157	-0.132287	0.0773561	0.00455926	-0.170835	0.0668299	-0.0656478	0.0830375	0.0250538	0.0902476	
3720	0.0542976	-0.132364	0.0774473	0.00461873	-0.170874	0.0667752	-0.065662	0.083057	0.0250278	0.0902415	
3740	0.0543228	-0.132359	0.077449	0.00463615	-0.170862	0.0667815	-0.0656471	0.0830359	0.0250939	0.0903283	
3760	0.0543211	-0.132384	0.077464	0.00461941	-0.170818	0.0668398	-0.0656781	0.0829996	0.0251085	0.0903475	
3780	0.0543004	-0.132447	0.077535	0.00459681	-0.170778	0.0669339	-0.0657123	0.0829897	0.0251184	0.0903622	
3800	0.0543098	-0.132487	0.077542	0.00466018	-0.17083	0.0669434	-0.0656834	0.0829952	0.0250987	0.0903548	
3820	0.0543078	-0.132549	0.0775853	0.00472144	-0.170829	0.0669491	-0.0656901	0.0830011	0.0250268	0.0902855	
3840	0.0543185	-0.132536	0.0776012	0.00470397	-0.170805	0.0669413	-0.0657065	0.0830081	0.0250196	0.0902721	
3860	0.054318	-0.132554	0.0776031	0.00465628	-0.170762	0.0668959	-0.0657729	0.0829987	0.0250859	0.0903663	
3880	0.0543833	-0.132636	0.077582	0.00465121	-0.170732	0.066911	-0.0657911	0.0829845	0.02509	0.0903686	
3900	0.0543801	-0.132677	0.0775959	0.0046172	-0.17073	0.0669229	-0.0657877	0.0829912	0.0251226	0.090407	
3920	0.0543611	-0.132731	0.0776208	0.00462138	-0.170743	0.0669287	-0.0657733	0.0830133	0.025123	0.090412	
3940	0.0544085	-0.132692	0.0775549	0.00459617	-0.170803	0.0669407	-0.0657329	0.083039	0.0250785	0.0903704	
3960	0.0544095	-0.132733	0.0775609	0.00457878	-0.170875	0.0669862	-0.0656409	0.0831216	0.0250622	0.0903525	
3980	0.054392	-0.132797	0.0776236	0.0045829	-0.170878	0.0669788	-0.0656327	0.0831297	0.0251162	0.0903838	
4000	0.0543807	-0.132792	0.077624	0.00453084	-0.17088	0.0670035	-0.0656156	0.0830785	0.0250965	0.0903619	
4020	0.0543496	-0.132756	0.0776285	0.0045246	-0.170899	0.0670338	-0.0655972	0.0830909	0.0251127	0.0904059	
4040	0.0543397	-0.132683	0.0775559	0.00453675	-0.170898	0.0670217	-0.0655942	0.0830814	0.0251101	0.0904108	
4060	0.0544013	-0.132692	0.0776013	0.00458556	-0.17089	0.0671413	-0.0655992	0.0830564	0.025166	0.0904424	
4080	0.0544056	-0.132688	0.0775966	0.0045885	-0.170915	0.0670847	-0.0655723	0.0831016	0.0252114	0.0904926	
4100	0.0543617	-0.132713	0.0776346	0.00457271	-0.170931	0.0670877	-0.0655566	0.083122	0.0252376	0.0905218	
4120	0.0543835	-0.13267	0.0775903	0.00458114	-0.170917	0.0670927	-0.065563	0.083093	0.0252336	0.0905062	
4140	0.0543916	-0.132691	0.0775961	0.0046412	-0.170934	0.0670748	-0.0655523	0.0831091	0.0252611	0.0905625	
4160	0.0544433	-0.132712	0.0775716	0.00463767	-0.170936	0.0670424	-0.0655698	0.0831542	0.0253003	0.0906522	
4180	0.0544641	-0.132743	0.0775648	0.00466879	-0.17093	0.0670483	-0.0655754	0.0831441	0.0252469	0.0905739	
4200	0.054465	-0.132864	0.0776377	0.0045928	-0.170943	0.0670697	-0.0655638	0.0831189	0.0251817	0.0904936	
4220	0.0544757	-0.132788	0.0775986	0.00460066	-0.170964	0.0670728	-0.06553	0.0831476	0.0251766	0.0904892	
4240	0.0544777	-0.132876	0.0776374	0.00464145	-0.171005	0.0671146	-0.0655261	0.0831423	0.0251941	0.090508	
4260	0.054489	-0.132827	0.0777084	0.00460001	-0.171018	0.0671153	-0.0655136	0.083146	0.0252111	0.0905027	
4280	0.0544686	-0.132799	0.0777019	0.00457834	-0.171022	0.0671243	-0.0655122	0.0831597	0.0251857	0.0904799	
4300	0.0544591	-0.132776	0.0776702	0.00456482	-0.171038	0.0670935	-0.0655048	0.0831843	0.0251946	0.0904994	
4320	0.0544507	-0.13279	0.0776703	0.00455947	-0.171153	0.0670634	-0.0653372	0.0832764	0.0252149	0.0904614	
4340	0.054519	-0.132791	0.077677	0.00456496	-0.171141	0.0670746	-0.0653426	0.0832587	0.0251755	0.0904306	
4360	0.0545183	-0.132759	0.0776241	0.00462308	-0.17108	0.0671038	-0.0653596	0.0831806	0.0251592	0.0904056	
4380	0.0544551	-0.132717	0.0775925	0.00461116	-0.171075	0.067095	-0.0653396	0.0831908	0.0251506	0.0903986	
4400	0.0544892	-0.132734	0.0776063	0.0045843	-0.171068	0.0671628	-0.0653692	0.0831519	0.0251648	0.090404	
4420	0.0544948	-0.132726	0.0775823	0.00459662	-0.171099	0.0671217	-0.0653589	0.0831721	0.0251831	0.0904257	
4440	0.0545063	-0.132719	0.0775993	0.00460977	-0.17114	0.0671727	-0.0653437	0.0831831	0.0251344	0.0903824	
4460	0.0545116	-0.132747	0.0776187	0.00462609	-0.171161	0.0671934	-0.0653196	0.0831923	0.0251173	0.090377	
4480	0.0545145	-0.132663	0.0775338	0.00457053	-0.17115	0.0672064	-0.0653215	0.0831931	0.0250597	0.0903511	
4500	0.0545113	-0.132648	0.0775215	0.00454847	-0.171151	0.0672393	-0.0653335	0.0832076	0.0250598	0.0903518	
4520	0.054512	-0.13267	0.0775502	0.00454536	-0.171135	0.0671537	-0.0653394	0.0832075	0.0250452	0.090343	
4540	0.0544957	-0.132621	0.077515	0.0044855	-0.171169	0.0673478	-0.0653076	0.0831729	0.0250318	0.0903225	
4560	0.054526	-0.132696	0.077592	0.00446017	-0.171101	0.067353	-0.0653309	0.0831375	0.025017	0.0903116	
4580	0.0545343	-0.132682	0.0775831	0.00450863	-0.171094	0.0673655	-0.0653376	0.0830945	0.0250816	0.0903805	
4600	0.0545457	-0.132687	0.0775858	0.00453514	-0.171053	0.0673567	-0.0653484	0.0830641	0.0250435	0.0903116	
4620	0.0545555	-0.132666	0.0776163	0.00455107	-0.171076	0.0673048	-0.0653263	0.0830975	0.0250568	0.0903203	
4640	0.0545751	-0.132679	0.0775994	0.00454452	-0.171099	0.0673124	-0.0653002	0.0831045	0.0250199	0.0902873	
4660	0.0545662	-0.132689	0.0775983	0.00456755	-0.171142	0.0673248	-0.0652453	0.0831572	0.0251072	0.0903824	
4680	0.054514	-0.132617	0.0775267	0.00452052	-0.171147	0.0673357	-0.0652319	0.0831704	0.0251032	0.0903946	
4700	0.0545335	-0.132625	0.0775205	0.00451731	-0.171149	0.0673251	-0.0652391	0.0831739	0.0250649	0.0903554	
4720	0.054603	-0.132622	0.0774868	0.00440882	-0.171087	0.0673221	-0.0652763	0.0831365	0.0250744	0.0903571	
4740	0.0546323	-0.132655	0.0775028	0.00438978	-0.171075	0.067335	-0.0652975	0.0830894	0.0250722	0.0903567	
4760	0.0546214	-0.132635	0.0775095	0.00437297	-0.171069	0.0673286	-0.0652987	0.0830842	0.0251486	0.0904411	
4780	0.0546328	-0.132668	0.0775207	0.00436069	-0.171099	0.0673357	-0.0652742	0.0831149	0.0251584	0.0904441	
4800	0.0546392	-0.132699	0.0775221	0.00437277	-0.171108	0.0673607	-0.0652731	0.0831491	0.0251664	0.0904547	
4820	0.0546831	-0.132684	0.077506	0.00441661	-0.171066	0.0673442	-0.0653225	0.0830996	0.0251735	0.0904745	
4840	0.0547031	-0.132697	0.0775219	0.00441046	-0.171157	0.0673164	-0.0652942	0.0831262	0.0251312	0.0904237	
4860	0.0547066	-0.132659	0.0775288	0.00437908	-0.171156	0.0673232	-0.0652723	0.0831211	0.0251236	0.0904167	
4880	0.0547128	-0.132661	0.0775303	0.00438737	-0.171143	0.0673172	-0.0652651	0.0831133	0.025107	0.0903981	
4900	0.0547056	-0.132631	0.0774948	0.00438874	-0.171152	0.067277	-0.065265	0.083133	0.0251169	0.0904047	
4920	0.0546953	-0.132646	0.0774893	0.00443963	-0.171162	0.0673258	-0.0652803	0.0831566	0.0251144	0.0904071	
4940	0.0546786	-0.132662	0.0774879	0.00447074	-0.171143	0.0673216	-0.065273	0.0831382	0.0251018	0.0904055	
4960	0.0546937	-0.132636	0.0774602	0.00445631	-0.171132	0.0673424	-0.0652856	0.0831572	0.0251568	0.0904456	
4980	0.0547347	-0.132636	0.0774691	0.00444401	-0.17113	0.0672946	-0.0652776	0.0831738	0.0252102	0.0904741	
5000	0.0548074	-0.132643	0.0775037	0.00438487	-0.171144	0.0672731	-0.06525	0.0831932	0.0252055	0.0904733	
5020	0.0548038	-0.13264	0.0774944	0.00436137	-0.171143	0.0672829	-0.0652525	0.0831922	0.0252156	0.0904892	
5040	0.0546711	-0.132616	0.0774943	0.00443227	-0.171163	0.0673294	-0.0651889	0.0831571	0.0252425	0.0905163	
5060	0.0546409	-0.132607	0.0774833	0.00443676	-0.171168	0.0673319	-0.0651712	0.083131	0.0252642	0.0905425	
5080	0.0547568	-0.132605	0.077478	0.00446212	-0.171165	0.0673172	-0.0652013	0.0831274	0.0252604	0.0905373	
5100	0.0548029	-0.13266	0.0775239	0.00451529	-0.171162	0.0673041	-0.0652106	0.0831135	0.0252265	0.0905007	
5120	0.0548337	-0.132664	0.0775408	0.00453925	-0.171171	0.0673091	-0.0651963	0.0831231	0.0252125	0.0904778	
5140	0.0548097	-0.132634	0.0774838	0.00449559	-0.171159	0.0672881	-0.0651962	0.0831045	0.0251779	0.0904471	
5160	0.05479	-0.132629	0.0774892	0.00454786	-0.171081	0.0673215	-0.0652355	0.083053	0.0252342	0.0904914	
5180	0.0547748	-0.132628	0.0775151	0.00456228	-0.171052	0.0673399	-0.0652423	0.0830452	0.025236	0.0905038	
5200	0.0547689	-0.132668	0.0775275	0.00457607	-0.171077	0.0673511	-0.0652276	0.0830669	0.0252302	0.0905006	
5220	0.0547718	-0.132697	0.0775811	0.00456147	-0.171112	0.0673758	-0.0652157	0.083091	0.0252496	0.090503	
5240	0.0547676	-0.13271	0.0775657	0.00462218	-0.171089	0.0673567	-0.0652071	0.0830746	0.0252626	0.0905111	
5260	0.0547476	-0.132758	0.0776243	0.00462267	-0.171042	0.067368	-0.06524	0.0830447	0.0252489	0.090506	
5280	0.0547635	-0.132769	0.0776291	0.00460965	-0.171071	0.0673325	-0.0652001	0.0830724	0.0252578	0.0904975	
5300	0.0547627	-0.132732	0.0776248	0.00462739	-0.171128	0.0672566	-0.0651375	0.0831287	0.0252459	0.0904788	
5320	0.0547747	-0.132724	0.0776337	0.00458622	-0.171126	0.0672506	-0.0651375	0.0831256	0.0252548	0.0904846	
5340	0.0547871	-0.132735	0.0776294	0.00458836	-0.171128	0.0672365	-0.0651422	0.0831349	0.025174	0.0904025	
5360	0.0547789	-0.13274	0.0776204	0.00461466	-0.171171	0.06722	-0.0650946	0.0831795	0.0252133	0.0904255	
5380	0.0547534	-0.132758	0.0776424	0.00460272	-0.171189	0.067204	-0.0650882	0.083195	0.0252109	0.0904227	
5400	0.0547099	-0.132768	0.0776371	0.00461737	-0.171267	0.067165	-0.0649948	0.0832863	0.0251857	0.0903919	
5420	0.0547125	-0.132782	0.0776346	0.00462596	-0.171294	0.0671815	-0.0650299	0.0833251	0.0252077	0.0904182	
5440	0.0547358	-0.132822	0.0776837	0.00460069	-0.171301	0.0672147	-0.0650205	0.0833345	0.0252119	0.0904113	
5460	0.0547143	-0.132814	0.0776718	0.00460183	-0.171291	0.0672247	-0.0650343	0.0833401	0.0251749	0.0903908	
5480	0.0547482	-0.13282	0.0776634	0.00464157	-0.171299	0.0672088	-0.0650362	0.0833547	0.0252463	0.0904569	
5500	0.0547374	-0.132802	0.0776903	0.00462848	-0.171305	0.067204	-0.0650313	0.0833623	0.0252427	0.0904558	
5520	0.0547835	-0.132841	0.0777234	0.00458635	-0.171318	0.0671569	-0.0650462	0.0833468	0.0252393	0.0904533	
5540	0.0547696	-0.132873	0.0777599	0.00457913	-0.171327	0.0671261	-0.0650337	0.0833436	0.0252391	0.0904341	
5560	0.0548837	-0.132879	0.077767	0.00459267	-0.171304	0.0670721	-0.0650562	0.0833057	0.0252085	0.0903977	
5580	0.0548759	-0.13286	0.0777573	0.00460202	-0.1713	0.067062	-0.0650859	0.0833039	0.0251907	0.0903741	
5600	0.0548958	-0.13287	0.0777616	0.00461858	-0.171292	0.0670592	-0.0650694	0.083291	0.025192	0.0903771	
5620	0.0549058	-0.132883	0.0777793	0.00460296	-0.171304	0.0670493	-0.0650412	0.0833083	0.0251703	0.0903588	
5640	0.0548907	-0.132916	0.0777636	0.00460302	-0.171288	0.0670331	-0.0650511	0.0833136	0.0251707	0.0903512	
5660	0.0548696	-0.132937	0.0777335	0.0046089	-0.171247	0.0670221	-0.0650908	0.0833267	0.0251668	0.0903392	
5680	0.0548389	-0.132945	0.0777555	0.00463129	-0.171227	0.0670024	-0.0651127	0.0832931	0.0251381	0.0903048	
5700	0.0548408	-0.132984	0.0777816	0.00462092	-0.17124	0.0669635	-0.065099	0.0833109	0.0250855	0.0902547	
5720	0.0548385	-0.133028	0.0778265	0.00465053	-0.171261	0.0669826	-0.0650956	0.0833334	0.0251367	0.0902939	
5740	0.0548409	-0.132983	0.077781	0.00465108	-0.171291	0.066993	-0.0650726	0.0833383	0.0251259	0.0902878	
5760	0.0548078	-0.132963	0.0777684	0.00467556	-0.171288	0.0669534	-0.0650662	0.0833282	0.0251467	0.0903108	
5780	0.0548062	-0.132968	0.0777603	0.00465657	-0.171263	0.0669562	-0.0651099	0.0833276	0.0250882	0.0902507	
5800	0.0548035	-0.132937	0.0777611	0.00463748	-0.171295	0.0669644	-0.065104	0.0833587	0.0250928	0.0902501	
5820	0.0547834	-0.132922	0.0777521	0.00463851	-0.171321	0.0669883	-0.065073	0.0833887	0.0250856	0.0902333	
5840	0.0548036	-0.132934	0.077751	0.00463349	-0.171332	0.0670264	-0.0650628	0.083431	0.0251061	0.0902497	
5860	0.0548035	-0.132951	0.0777766	0.00461186	-0.17136	0.0670282	-0.0650465	0.0834461	0.0250797	0.0902135	
5880	0.0548057	-0.132953	0.0777577	0.00460656	-0.171371	0.0670388	-0.0650378	0.0834417	0.0250379	0.0901725	
5900	0.0548679	-0.132914	0.0777253	0.00462761	-0.171383	0.0670349	-0.0650245	0.0834248	0.0250325	0.0901739	
5920	0.0548791	-0.132928	0.0777281	0.00460571	-0.171369	0.0670229	-0.0650291	0.0834075	0.025024	0.0901662	
5940	0.0548772	-0.132924	0.0777212	0.00465284	-0.171388	0.0670091	-0.0650024	0.0834281	0.0250199	0.0901713	
5960	0.054858	-0.132874	0.0776734	0.00462465	-0.171426	0.0670049	-0.0649838	0.0834938	0.025032	0.0901833	
5980	0.0548076	-0.132909	0.0776833	0.00461311	-0.171376	0.0669597	-0.0650191	0.0834556	0.024999	0.0901614	
6000	0.0548306	-0.132911	0.0776861	0.00460972	-0.171409	0.0669637	-0.0650372	0.0834392	0.0249998	0.0901595	
6020	0.0548854	-0.132917	0.0776994	0.0046019	-0.171378	0.0670001	-0.0650577	0.0834325	0.0249892	0.0901626	
6040	0.0548991	-0.132904	0.0776609	0.0046037	-0.171377	0.0670052	-0.06506	0.0834169	0.0250007	0.0901673	
6060	0.0548941	-0.132915	0.0776562	0.00458323	-0.171373	0.0670045	-0.0650704	0.0834273	0.0250108	0.0901737	
6080	0.0548837	-0.132919	0.0776634	0.00457002	-0.17139	0.0669836	-0.0650747	0.0834586	0.0250019	0.0901672	
6100	0.0548583	-0.132885	0.0776189	0.00460886	-0.171366	0.0669806	-0.0650927	0.0834434	0.0249785	0.0901508	
6120	0.0548722	-0.132873	0.0776174	0.00461989	-0.171353	0.066984	-0.0651233	0.0834013	0.0250457	0.0902182	
6140	0.0549094	-0.132873	0.0776253	0.00462689	-0.171375	0.0669701	-0.0651022	0.0834211	0.0250379	0.0902096	
6160	0.0549135	-0.13288	0.0776316	0.00462178	-0.171373	0.0669651	-0.0650958	0.0834147	0.025039	0.0902112	
6180	0.0549303	-0.132873	0.0776352	0.00465609	-0.171395	0.0669685	-0.0650873	0.0834261	0.0250851	0.0902695	
6200	0.0549491	-0.13288	0.0776488	0.0046308	-0.171418	0.0669535	-0.0650843	0.0834365	0.0251047	0.0902846	
6220	0.054964	-0.132973	0.0776255	0.00463069	-0.171436	0.0670423	-0.0650588	0.0834566	0.025122	0.0902798	
6240	0.0549434	-0.133005	0.0776601	0.0046284	-0.171447	0.0670381	-0.0650342	0.0834551	0.0251202	0.09029	
6260	0.0550821	-0.132681	0.0780405	0.00499014	-0.171424	0.0669532	-0.065047	0.0834312	0.0250955	0.090258	
6280	0.0554684	-0.132638	0.0782481	0.00499747	-0.171345	0.0669685	-0.0650725	0.0834516	0.0251329	0.0902777	
6300	0.0554538	-0.132652	0.0782341	0.00502446	-0.171305	0.0669794	-0.0651198	0.0833915	0.0252005	0.0903035	
6320	0.0554861	-0.132651	0.0782797	0.00500292	-0.171265	0.0669667	-0.0651769	0.0833457	0.025216	0.0903188	
6340	0.0554633	-0.132665	0.0782891	0.00499091	-0.171279	0.0669479	-0.0651571	0.0833538	0.02522	0.0903242	
6360	0.0554495	-0.132689	0.0782917	0.00496783	-0.171288	0.0669202	-0.0651486	0.0833739	0.0252269	0.0903241	
6380	0.0554813	-0.132702	0.0783248	0.00495575	-0.171295	0.0669293	-0.0651177	0.0834049	0.0251915	0.0902964	
6400	0.0554873	-0.132712	0.0783391	0.00494185	-0.171275	0.0669271	-0.0651336	0.0833907	0.0252103	0.0903267	
6420	0.0554815	-0.132793	0.0784061	0.00492047	-0.171268	0.0668678	-0.0651463	0.0833871	0.0252297	0.0903405	
6440	0.0554934	-0.13284	0.0784471	0.00492383	-0.171265	0.0668599	-0.0651521	0.083374	0.0252692	0.0903779	
6460	0.055456	-0.132831	0.0784283	0.00489658	-0.171267	0.0668151	-0.0651411	0.0833797	0.0252619	0.0903657	
6480	0.0554604	-0.132859	0.0784497	0.00488658	-0.171297	0.0668024	-0.0651122	0.0833841	0.0252544	0.0903501	
6500	0.0554537	-0.13287	0.0784587	0.00490021	-0.171307	0.0667973	-0.0651013	0.0834078	0.0252249	0.0903369	
6520	0.0554483	-0.13286	0.078466	0.00494152	-0.171315	0.0667944	-0.0651075	0.0833866	0.0252086	0.0903206	
6540	0.0554462	-0.132873	0.0784778	0.00494016	-0.171319	0.0667998	-0.0651203	0.0833919	0.0252069	0.0903201	
6560	0.055443	-0.13288	0.078478	0.00493802	-0.171362	0.0667926	-0.0651078	0.0834164	0.0251687	0.0903035	
6580	0.0554254	-0.132883	0.078481	0.00493131	-0.171358	0.0668103	-0.0651155	0.0834124	0.0251612	0.0903051	
6600	0.0554243	-0.132912	0.0785088	0.00495216	-0.1714	0.0667916	-0.0650892	0.0834119	0.0251623	0.0903094	
6620	0.0554267	-0.13294	0.0785286	0.00492857	-0.171385	0.0667966	-0.0651078	0.0834048	0.0251882	0.0903542	
6640	0.0554769	-0.132942	0.0785026	0.00491058	-0.171425	0.0668032	-0.0650886	0.0834446	0.0252077	0.090376	
6660	0.055495	-0.132861	0.0784538	0.00490694	-0.171384	0.0668063	-0.0650869	0.0833956	0.0252101	0.090386	
6680	0.0555123	-0.132867	0.0784521	0.00493454	-0.17139	0.0668353	-0.0650878	0.0834038	0.0252111	0.0903888	
6700	0.0555362	-0.132919	0.0784816	0.00498612	-0.171324	0.066788	-0.065123	0.0833608	0.0252794	0.0904455	
6720	0.0555128	-0.132912	0.0784795	0.00496232	-0.171297	0.0667699	-0.0651605	0.0833567	0.025326	0.0904703	
6740	0.0555688	-0.132891	0.0784377	0.00502014	-0.171317	0.0668855	-0.065151	0.0833517	0.0254217	0.090519	
6760	0.0555514	-0.132882	0.0784367	0.00500117	-0.171307	0.0668774	-0.0651617	0.0833453	0.025366	0.0904769	
6780	0.0555553	-0.132905	0.0784389	0.00502012	-0.171313	0.0668553	-0.065158	0.0833491	0.0253832	0.0904855	
6800	0.0555467	-0.132914	0.0784322	0.00502079	-0.171317	0.0668788	-0.0651539	0.0833484	0.0253356	0.0904378	
6820	0.0555811	-0.132905	0.0784404	0.00502495	-0.171352	0.0668552	-0.0651256	0.0833661	0.0253113	0.0904157	
6840	0.0554998	-0.132931	0.0784468	0.00503943	-0.171338	0.066849	-0.0651127	0.0833705	0.025313	0.0904226	
6860	0.0555252	-0.132941	0.0784668	0.00504763	-0.17133	0.0668452	-0.0651273	0.0833539	0.0253119	0.0904201	
6880	0.0555394	-0.13296	0.0784811	0.00504649	-0.171345	0.0668431	-0.0651113	0.0833586	0.0253121	0.0904206	
6900	0.0555479	-0.132934	0.0784723	0.00502696	-0.171287	0.0668567	-0.0651504	0.0833504	0.0252875	0.0904048	
6920	0.0555495	-0.132922	0.0784723	0.00503643	-0.171289	0.0668551	-0.0651563	0.0833612	0.0252836	0.0904009	
6940	0.0555532	-0.132888	0.0784355	0.00502436	-0.171303	0.0668757	-0.0651557	0.0833645	0.0252574	0.0903866	
6960	0.0555452	-0.132893	0.0784387	0.00504367	-0.17134	0.0668485	-0.0651229	0.0833905	0.0252396	0.0903716	
6980	0.0555539	-0.132922	0.0784593	0.00502687	-0.171326	0.0668301	-0.0651475	0.0833769	0.0252699	0.0904042	
7000	0.0555636	-0.13293	0.0784694	0.0050083	-0.171287	0.066853	-0.0651864	0.0833643	0.0252676	0.09039	
7020	0.0555736	-0.13295	0.0784633	0.00500255	-0.171254	0.0668402	-0.0652156	0.0833468	0.0252817	0.090397	
7040	0.0555523	-0.132948	0.0784854	0.0050026	-0.171238	0.0668347	-0.0652199	0.0833469	0.0252849	0.0903935	
7060	0.0555339	-0.132928	0.078478	0.004963	-0.171259	0.0668382	-0.065208	0.0833642	0.0252939	0.0904046	
7080	0.055542	-0.132911	0.0784712	0.00492296	-0.171247	0.0668208	-0.0652169	0.0833312	0.0253078	0.0904149	
7100	0.0555641	-0.132907	0.078466	0.00495413	-0.171262	0.0668184	-0.0651932	0.0833681	0.0253362	0.0904514	
7120	0.0555942	-0.132898	0.0784587	0.00497421	-0.171242	0.0667516	-0.065201	0.0833652	0.0253242	0.0904356	
7140	0.0556087	-0.132933	0.0784878	0.00497828	-0.171251	0.0667656	-0.0651936	0.0833662	0.0253107	0.0904017	
7160	0.0556135	-0.132939	0.078495	0.00501011	-0.171268	0.0667684	-0.0651813	0.0833784	0.0252685	0.0903843	
7180	0.0556008	-0.132943	0.0784842	0.0049937	-0.171268	0.0667482	-0.0651781	0.0833797	0.0252679	0.0903838	
7200	0.0555764	-0.13295	0.0784809	0.00503796	-0.171283	0.066764	-0.0651452	0.0834367	0.0252893	0.0904234	
7220	0.0555751	-0.132955	0.07849	0.00502979	-0.171279	0.0667714	-0.0651442	0.0834001	0.0252831	0.0904117	
7240	0.0555626	-0.132948	0.0785181	0.00505314	-0.171273	0.0667731	-0.0651608	0.0833779	0.025295	0.0904206	
7260	0.0555432	-0.132959	0.0785185	0.00506094	-0.17128	0.0667756	-0.0651516	0.0833729	0.0252915	0.0904174	
7280	0.0555579	-0.132911	0.0784956	0.00504544	-0.17127	0.0667773	-0.0651556	0.0833543	0.0252928	0.0904156	
7300	0.0555491	-0.132944	0.0785108	0.00507534	-0.17126	0.0668085	-0.0651688	0.0833288	0.0252773	0.090401	
7320	0.0555523	-0.132955	0.0785048	0.00508814	-0.171251	0.066793	-0.0651855	0.083319	0.0252459	0.0903753	
7340	0.0555575	-0.132959	0.0785006	0.00508375	-0.17127	0.066797	-0.0651711	0.0833432	0.0252611	0.0903769	
7360	0.0555556	-0.132994	0.0785199	0.00505845	-0.171243	0.0668071	-0.0651963	0.0833154	0.0252599	0.090385	
7380	0.0555997	-0.133014	0.0785262	0.00503019	-0.171243	0.0668289	-0.0651933	0.0833136	0.0252398	0.0903623	
7400	0.0555988	-0.133011	0.0785316	0.00504443	-0.171224	0.0668297	-0.0652173	0.0833099	0.0252239	0.0903414	
7420	0.0556001	-0.133029	0.0785392	0.00503608	-0.171245	0.06683	-0.0651956	0.0833401	0.0252311	0.0903521	
7440	0.055597	-0.133003	0.0785332	0.00500418	-0.171241	0.0668483	-0.065192	0.0833377	0.0252202	0.0903459	
7460	0.055547	-0.133012	0.0785212	0.00501101	-0.17125	0.0667723	-0.0651807	0.0833331	0.0252259	0.090353	
7480	0.0555634	-0.133055	0.0785559	0.00502685	-0.171257	0.066786	-0.0651519	0.0833311	0.0252283	0.0903557	
7500	0.0555506	-0.133058	0.0785529	0.00501782	-0.171272	0.0668159	-0.0651408	0.0833376	0.025229	0.0903561	
7520	0.055543	-0.13306	0.0785549	0.00503209	-0.17127	0.0668129	-0.0651453	0.0833278	0.0252178	0.0903417	
7540	0.0555393	-0.133043	0.0785367	0.00504735	-0.171265	0.0667873	-0.0651449	0.0833359	0.0251674	0.0902877	
7560	0.055528	-0.133014	0.0785342	0.00505299	-0.171221	0.0667895	-0.065165	0.0833035	0.025171	0.0902995	
7580	0.0555378	-0.133011	0.0785354	0.00503736	-0.171257	0.0667826	-0.0650832	0.0833558	0.0251778	0.0903108	
7600	0.0555443	-0.133016	0.0785406	0.00501132	-0.171265	0.0667974	-0.0650668	0.0833523	0.0251982	0.0903383	
7620	0.0555542	-0.13299	0.0785256	0.00501688	-0.171257	0.0667866	-0.0650872	0.0833371	0.0252025	0.090348	
7640	0.055557	-0.132991	0.0785191	0.00499231	-0.171191	0.066812	-0.0651481	0.083325	0.0251801	0.0903253	
7660	0.0555734	-0.13297	0.078505	0.00502144	-0.171186	0.0668087	-0.0651481	0.0833192	0.0251657	0.0903085	
7680	0.0555865	-0.132961	0.0784999	0.00501118	-0.1712	0.0668126	-0.0651392	0.0833261	0.0251685	0.0903095	
7700	0.0555869	-0.132979	0.0785119	0.00499438	-0.171198	0.066744	-0.0651507	0.083314	0.0251662	0.0903074	
7720	0.0555685	-0.132995	0.0785158	0.00499971	-0.171197	0.0667732	-0.0651513	0.0833163	0.0251634	0.0903157	
7740	0.0555608	-0.132999	0.0785225	0.00501595	-0.171208	0.0667533	-0.0651525	0.0833202	0.025156	0.0903099	
7760	0.0555903	-0.132992	0.0785172	0.00500988	-0.171205	0.066754	-0.0651583	0.0833197	0.0251581	0.0903104	
7780	0.0555792	-0.132982	0.0785125	0.00497468	-0.171229	0.0667431	-0.065119	0.0833402	0.0251556	0.0903054	
7800	0.0555738	-0.133007	0.0785087	0.00497951	-0.171213	0.0667555	-0.0651217	0.083348	0.0251439	0.0902931	
7820	0.0555401	-0.133012	0.0785055	0.00497467	-0.171216	0.0667477	-0.0651078	0.0833494	0.0251463	0.0902953	
7840	0.0555216	-0.133009	0.0785071	0.00496581	-0.171214	0.0667484	-0.0651074	0.0833458	0.0251399	0.0902815	
7860	0.0555179	-0.133031	0.0785255	0.0049437	-0.171198	0.0667249	-0.0651197	0.0833444	0.0251329	0.090271	
7880	0.0555225	-0.133031	0.078527	0.00494506	-0.171185	0.0666942	-0.0651242	0.0833389	0.0251309	0.0902669	
7900	0.0555273	-0.133028	0.0785304	0.00494674	-0.171185	0.0666931	-0.0651284	0.0833409	0.0251609	0.0902845	
7920	0.0555472	-0.133009	0.0785294	0.00495278	-0.171195	0.0666927	-0.0651227	0.0833462	0.0251324	0.0902528	
7940	0.0555571	-0.133009	0.0785279	0.00496792	-0.171199	0.0667095	-0.0651216	0.0833341	0.0251187	0.090243	
7960	0.0555431	-0.132983	0.0785068	0.00498424	-0.171199	0.0666807	-0.0651268	0.0833377	0.0251116	0.0902391	
7980	0.0555483	-0.132972	0.0784985	0.00497984	-0.171194	0.0666709	-0.0651414	0.0833248	0.0251157	0.0902466	
8000	0.0555363	-0.13303	0.0785102	0.00500588	-0.171184	0.066667	-0.0651656	0.0833245	0.025115	0.0902444	
8020	0.0555267	-0.133037	0.0785063	0.00499696	-0.171174	0.0666619	-0.065185	0.0832941	0.0251317	0.0902665	
8040	0.0555166	-0.133054	0.0785195	0.0050054	-0.171177	0.0666584	-0.065184	0.0832989	0.0251328	0.0902704	
8060	0.0555248	-0.133067	0.0785218	0.00501128	-0.171182	0.066645	-0.0651795	0.0833012	0.0251212	0.09026	
8080	0.055518	-0.13305	0.0785054	0.0050137	-0.17117	0.0666484	-0.0651824	0.0833075	0.0251215	0.0902606	
8100	0.0555172	-0.13305	0.0785084	0.00499374	-0.17116	0.0666483	-0.0651919	0.0832954	0.0250972	0.090243	
8120	0.0555117	-0.133065	0.0785061	0.00499284	-0.171131	0.0666472	-0.0651943	0.0832862	0.0251086	0.0902735	
8140	0.0555087	-0.133062	0.0785054	0.00499486	-0.171148	0.0666773	-0.06519	0.0832934	0.0251201	0.0902845	
8160	0.0554916	-0.133043	0.0784781	0.00497665	-0.171133	0.0666858	-0.0651958	0.0832996	0.0250925	0.0902551	
8180	0.05548	-0.133045	0.0784571	0.00497568	-0.171128	0.0666769	-0.065201	0.0833008	0.025099	0.0902632	
8200	0.0554739	-0.133034	0.0784532	0.00494587	-0.171123	0.0666763	-0.0652087	0.0832839	0.0251001	0.0902635	
8220	0.0554761	-0.133028	0.0784591	0.0049518	-0.171129	0.0666638	-0.0652014	0.0832995	0.0251054	0.0902754	
8240	0.0554601	-0.133018	0.0784515	0.00496409	-0.171135	0.0666741	-0.065207	0.0833072	0.0251163	0.0902937	
8260	0.055461	-0.133013	0.0784446	0.00496308	-0.171177	0.0666869	-0.0651702	0.0833658	0.0251143	0.0902899	
8280	0.0554655	-0.133016	0.0784393	0.00495069	-0.171181	0.066703	-0.0651778	0.0833827	0.0251284	0.0903043	
8300	0.0554567	-0.133009	0.0784311	0.00494982	-0.171199	0.0666916	-0.0651883	0.0833726	0.0251171	0.0902905	
8320	0.0554476	-0.133003	0.0784394	0.00493702	-0.171193	0.0667058	-0.0651913	0.0833709	0.0250852	0.0902782	
8340	0.0554433	-0.132994	0.0784268	0.00492681	-0.171192	0.0666962	-0.0651925	0.0833694	0.0250843	0.0902803	
8360	0.0554501	-0.132956	0.0783898	0.00494522	-0.171211	0.0666746	-0.0651718	0.0833805	0.0250787	0.0902709	
8380	0.0554571	-0.13296	0.0783918	0.00494471	-0.171205	0.0666561	-0.0651784	0.0833645	0.0250827	0.0902733	
8400	0.0554725	-0.132962	0.0783939	0.00493949	-0.171209	0.0666553	-0.065179	0.0833697	0.0250827	0.0902736	
8420	0.0554612	-0.132959	0.0783942	0.004939	-0.171211	0.066647	-0.0651854	0.0833638	0.0250855	0.090275	
8440	0.0554557	-0.13296	0.0783917	0.00493902	-0.171218	0.0666398	-0.0651777	0.0833719	0.0250945	0.0902787	
8460	0.0554575	-0.132954	0.0783897	0.00493994	-0.171236	0.0666311	-0.0651568	0.0833834	0.0250852	0.0902802	
8480	0.0554707	-0.132976	0.0784137	0.00494131	-0.171243	0.0666307	-0.065159	0.0833952	0.0250913	0.0902868	
8500	0.055468	-0.132975	0.0784093	0.00495511	-0.171239	0.0666162	-0.0651619	0.0833882	0.0250925	0.0902878	
8520	0.0554616	-0.132974	0.0784091	0.00497065	-0.171231	0.0666199	-0.0651729	0.0833723	0.0250879	0.0902856	
8540	0.055449	-0.132977	0.0784075	0.00496529	-0.17124	0.0666276	-0.0651598	0.0833705	0.0250985	0.0902961	
8560	0.0554553	-0.132981	0.078431	0.00496752	-0.171219	0.0666408	-0.065164	0.0833515	0.0251074	0.0902992	
8580	0.0554601	-0.13298	0.0784199	0.00496682	-0.171241	0.0665762	-0.065151	0.0833796	0.0250868	0.0902817	
8600	0.055466	-0.132959	0.0784205	0.00504868	-0.171249	0.0665567	-0.0651548	0.0833881	0.0251068	0.0902997	
8620	0.05547	-0.132939	0.0784039	0.00507892	-0.171188	0.0668564	-0.0651584	0.0833842	0.0250965	0.0901518	
8640	0.0554686	-0.132938	0.0784075	0.00503206	-0.171158	0.0669159	-0.0651564	0.0833439	0.0251273	0.0901876	
8660	0.0554904	-0.132933	0.0784258	0.00505185	-0.17117	0.0669274	-0.0651341	0.0833648	0.0251242	0.0901878	
8680	0.0554805	-0.132928	0.0784189	0.00505746	-0.171162	0.0669279	-0.065139	0.0833533	0.0251529	0.090214	
8700	0.0554506	-0.132954	0.078439	0.00509946	-0.171167	0.0669254	-0.0651424	0.0833546	0.0251329	0.0902121	
8720	0.0554431	-0.132986	0.0784496	0.00508356	-0.171158	0.0669178	-0.0651421	0.0833337	0.0251138	0.0902004	
8740	0.0554646	-0.132976	0.0784507	0.00506128	-0.171161	0.0669415	-0.0651435	0.0833417	0.0251259	0.0902087	
8760	0.0554514	-0.132972	0.0784484	0.0050558	-0.171161	0.0669433	-0.0651412	0.0833342	0.0251286	0.0902144	
8780	0.0554512	-0.132979	0.0784372	0.00504755	-0.171185	0.0669497	-0.0651282	0.0833478	0.0251414	0.0902283	
8800	0.0554561	-0.132967	0.0784146	0.00511027	-0.171181	0.0670272	-0.0651325	0.0833377	0.0251584	0.090233	
8820	0.0554448	-0.132971	0.0784258	0.00512222	-0.171201	0.0670301	-0.0651049	0.0833622	0.0251645	0.0902302	
8840	0.0554444	-0.132968	0.0784146	0.00511848	-0.171223	0.0670262	-0.0650776	0.0833942	0.0251651	0.0902369	
8860	0.0554382	-0.132971	0.0784274	0.00509813	-0.171249	0.0670289	-0.065072	0.083428	0.0251407	0.0902027	
8880	0.0553341	-0.132954	0.0784217	0.00499719	-0.171167	0.0670504	-0.0651399	0.0833949	0.0251449	0.0902159	
8900	0.0553365	-0.132964	0.0784272	0.00500205	-0.17117	0.0670479	-0.0651418	0.0833822	0.0251805	0.0902437	
8920	0.0553525	-0.13297	0.0784277	0.0050189	-0.171175	0.0670398	-0.0651317	0.0833874	0.0251556	0.0902222	
8940	0.0553518	-0.132944	0.0784102	0.00501852	-0.171164	0.0670267	-0.0651418	0.0833774	0.0251587	0.0902252	
8960	0.055379	-0.132932	0.0784027	0.00502724	-0.171151	0.0670012	-0.0651509	0.0833523	0.0251636	0.090237	
8980	0.0553851	-0.132943	0.0784019	0.00503328	-0.171149	0.0670001	-0.0651514	0.0833527	0.0251743	0.0902372	
9000	0.0553818	-0.132995	0.0784565	0.00501045	-0.171149	0.0669894	-0.0651562	0.0833702	0.0251988	0.0902602	
9020	0.0553848	-0.132993	0.0784321	0.005006	-0.171145	0.0670142	-0.0651603	0.0833831	0.0252397	0.0903021	
9040	0.0553815	-0.133006	0.0784429	0.00503049	-0.17113	0.0669769	-0.0651739	0.0833862	0.025231	0.0903046	
9060	0.0553836	-0.133009	0.0784465	0.00502885	-0.171157	0.0669731	-0.065143	0.083417	0.0252481	0.0903214	
9080	0.0553906	-0.133008	0.0784451	0.00502312	-0.171162	0.0669762	-0.0651437	0.0834137	0.0252457	0.0903205	
9100	0.0553866	-0.133019	0.0784513	0.00502182	-0.171155	0.0669928	-0.0651516	0.083405	0.0252445	0.0903172	
9120	0.0553897	-0.133019	0.0784627	0.00501903	-0.171145	0.0669966	-0.0651737	0.0833789	0.0252424	0.0903089	
9140	0.0553915	-0.133038	0.0784767	0.00504914	-0.171143	0.0670008	-0.0651785	0.0833584	0.0252687	0.0903337	
9160	0.0554193	-0.133034	0.0784718	0.00504968	-0.171153	0.0670087	-0.0651637	0.0833688	0.0252793	0.0903421	
9180	0.0554219	-0.133032	0.0784613	0.00505948	-0.171181	0.0670255	-0.0651416	0.0833626	0.0252793	0.0903362	
9200	0.0554447	-0.13302	0.0784414	0.00508369	-0.171174	0.0670284	-0.0651205	0.0833578	0.0252787	0.0903419	
9220	0.0554452	-0.133001	0.0784297	0.00507197	-0.171176	0.0670216	-0.0651158	0.0833564	0.0252909	0.0903451	
9240	0.0554535	-0.13303	0.0784444	0.00507135	-0.171205	0.0669912	-0.0650861	0.0833795	0.0253077	0.0903602	
9260	0.0554518	-0.133023	0.0784411	0.00509648	-0.171194	0.0670162	-0.0650864	0.0833834	0.0252995	0.0903517	
9280	0.0554517	-0.133032	0.078445	0.00510242	-0.171202	0.0670126	-0.0650787	0.0833962	0.0252791	0.0903305	
9300	0.0554497	-0.133045	0.0784527	0.00509213	-0.171197	0.0670065	-0.0650829	0.0833934	0.0252681	0.0903259	
9320	0.0554459	-0.13303	0.0784625	0.00510302	-0.171201	0.0670231	-0.0650843	0.0834045	0.0252914	0.0903501	
9340	0.0554456	-0.133018	0.0784533	0.00509033	-0.171168	0.0670459	-0.0651139	0.0833682	0.0252957	0.0903562	
9360	0.0554426	-0.133027	0.0784509	0.00510482	-0.171175	0.0670636	-0.0651037	0.0833886	0.0252893	0.0903518	
9380	0.0554237	-0.133028	0.0784487	0.00509792	-0.171172	0.067059	-0.0651076	0.0833848	0.0252906	0.0903562	
9400	0.0554071	-0.133055	0.0784658	0.00512111	-0.171141	0.0670528	-0.0651645	0.0833635	0.0252784	0.0903423	
9420	0.0553946	-0.133054	0.0784692	0.0051217	-0.171172	0.0670591	-0.0651398	0.0833955	0.0252838	0.090346	
9440	0.0553903	-0.13304	0.0784661	0.00512468	-0.171161	0.0670648	-0.0651481	0.0833807	0.0252802	0.0903498	
9460	0.0553855	-0.133048	0.07847	0.00512622	-0.171169	0.0670611	-0.0651387	0.0833838	0.025282	0.0903533	
9480	0.0554167	-0.133052	0.0784687	0.00513159	-0.171165	0.0670588	-0.0651348	0.0833892	0.025289	0.0903506	
9500	0.0554116	-0.133023	0.0784513	0.00505389	-0.171163	0.0670617	-0.0651246	0.0833867	0.0252638	0.0903326	
9520	0.05541	-0.13303	0.0784496	0.00504384	-0.17116	0.0670505	-0.0651177	0.083384	0.0252671	0.0903325	
9540	0.0554156	-0.133035	0.0784595	0.00504233	-0.171151	0.0670466	-0.0651243	0.0833728	0.0252755	0.0903412	
9560	0.0554185	-0.133029	0.0784543	0.00504701	-0.171151	0.0670328	-0.0651242	0.0833744	0.0252668	0.0903337	
9580	0.0554129	-0.133028	0.07845	0.00503608	-0.171149	0.0670049	-0.0651249	0.0833706	0.025252	0.0903212	
9600	0.0554046	-0.133022	0.0784471	0.00503741	-0.171143	0.0670129	-0.0651257	0.0833737	0.0252585	0.0903238	
9620	0.0553953	-0.133024	0.0784423	0.00502352	-0.171129	0.0670037	-0.0651294	0.0833693	0.0252532	0.090313	
9640	0.0554097	-0.133012	0.0784545	0.00500335	-0.171125	0.067005	-0.0651428	0.0833762	0.0252578	0.0903138	
9660	0.0554273	-0.133005	0.0784482	0.00501054	-0.171141	0.0669967	-0.065131	0.0833868	0.0252373	0.0902977	
9680	0.0554339	-0.133016	0.0784562	0.00501087	-0.17114	0.0670137	-0.0651322	0.0833873	0.0252647	0.0903153	
9700	0.0554403	-0.133018	0.0784614	0.00502551	-0.171135	0.0669989	-0.0651369	0.083395	0.0252821	0.0903343	
9720	0.0554423	-0.133016	0.0784599	0.00502838	-0.171156	0.0670135	-0.0651195	0.0834079	0.0252791	0.0903322	
9740	0.0554406	-0.13301	0.0784605	0.00502623	-0.171152	0.0670231	-0.065119	0.0834113	0.0252973	0.0903498	
9760	0.0554507	-0.133025	0.0784842	0.0050159	-0.171151	0.0670232	-0.0651167	0.0834062	0.0253002	0.0903459	
9780	0.0554515	-0.13302	0.0784817	0.00501742	-0.171158	0.0670198	-0.065107	0.0834087	0.0253072	0.0903526	
9800	0.0554624	-0.133023	0.0785019	0.00506672	-0.171155	0.0670224	-0.0651122	0.0834286	0.0253059	0.090355	
9820	0.0554608	-0.133004	0.0784942	0.00504675	-0.171161	0.0670031	-0.0650985	0.0834381	0.0252921	0.0903377	
9840	0.0554714	-0.133013	0.0784995	0.00505112	-0.171146	0.0670057	-0.0651095	0.0834415	0.0252892	0.0903334	
9860	0.0554642	-0.133015	0.078495	0.00506427	-0.171152	0.0669964	-0.0651064	0.0834513	0.0252857	0.0903305	
9880	0.0554741	-0.133016	0.0784881	0.00507016	-0.171152	0.066978	-0.0651072	0.0834533	0.025292	0.0903404	
9900	0.055473	-0.133026	0.0784917	0.00506823	-0.171142	0.0669694	-0.0651151	0.0834334	0.0252838	0.0903286	
9920	0.0554778	-0.132942	0.0784108	0.00504177	-0.171149	0.0669084	-0.0651119	0.0834386	0.025297	0.0903488	
9940	0.0554815	-0.132957	0.0784019	0.00502335	-0.17116	0.066906	-0.0651067	0.0834532	0.0253119	0.0903585	
9960	0.0554873	-0.132967	0.0784041	0.00501745	-0.171158	0.0669078	-0.0651077	0.0834477	0.0253178	0.0903632	
9980	0.055488	-0.132958	0.078387	0.00502085	-0.171159	0.0669104	-0.0651098	0.0834477	0.0253144	0.0903636	
